digraph Tree {
node [shape=box] ;
0 [label="Status of existing checking account <= 2.5\nentropy = 0.8826\nsamples = 900\nvalue = [629, 271]"] ;
1 [label="Duration in month <= 0.2721\nentropy = 0.9887\nsamples = 489\nvalue = [275, 214]"] ;
0 -> 1 [labeldistance=2.5, labelangle=45, headlabel="True"] ;
2 [label="Credit history <= 1.5\nentropy = 0.931\nsamples = 277\nvalue = [181, 96]"] ;
1 -> 2 ;
3 [label="Purpose <= 7.0\nentropy = 0.7793\nsamples = 26\nvalue = [6, 20]"] ;
2 -> 3 ;
4 [label="Duration in month <= 0.1838\nentropy = 0.5586\nsamples = 23\nvalue = [3, 20]"] ;
3 -> 4 ;
5 [label="entropy = 0.0\nsamples = 15\nvalue = [0, 15]"] ;
4 -> 5 ;
6 [label="Other installment plans <= 2.0\nentropy = 0.9544\nsamples = 8\nvalue = [3, 5]"] ;
4 -> 6 ;
7 [label="Age in years <= 0.375\nentropy = 0.8113\nsamples = 4\nvalue = [3, 1]"] ;
6 -> 7 ;
8 [label="entropy = 0.0\nsamples = 3\nvalue = [3, 0]"] ;
7 -> 8 ;
9 [label="entropy = 0.0\nsamples = 1\nvalue = [0, 1]"] ;
7 -> 9 ;
10 [label="entropy = 0.0\nsamples = 4\nvalue = [0, 4]"] ;
6 -> 10 ;
11 [label="entropy = 0.0\nsamples = 3\nvalue = [3, 0]"] ;
3 -> 11 ;
12 [label="Credit amount <= 0.0569\nentropy = 0.8847\nsamples = 251\nvalue = [175, 76]"] ;
2 -> 12 ;
13 [label="Duration in month <= 0.1029\nentropy = 0.9846\nsamples = 89\nvalue = [51, 38]"] ;
12 -> 13 ;
14 [label="Credit amount <= 0.0527\nentropy = 0.684\nsamples = 33\nvalue = [27, 6]"] ;
13 -> 14 ;
15 [label="Age in years <= 0.2589\nentropy = 0.5548\nsamples = 31\nvalue = [27, 4]"] ;
14 -> 15 ;
16 [label="Property <= 1.5\nentropy = 0.8905\nsamples = 13\nvalue = [9, 4]"] ;
15 -> 16 ;
17 [label="entropy = 0.0\nsamples = 6\nvalue = [6, 0]"] ;
16 -> 17 ;
18 [label="Age in years <= 0.1696\nentropy = 0.9852\nsamples = 7\nvalue = [3, 4]"] ;
16 -> 18 ;
19 [label="Status of existing checking account <= 1.5\nentropy = 0.971\nsamples = 5\nvalue = [3, 2]"] ;
18 -> 19 ;
20 [label="entropy = 0.0\nsamples = 2\nvalue = [0, 2]"] ;
19 -> 20 ;
21 [label="entropy = 0.0\nsamples = 3\nvalue = [3, 0]"] ;
19 -> 21 ;
22 [label="entropy = 0.0\nsamples = 2\nvalue = [0, 2]"] ;
18 -> 22 ;
23 [label="entropy = 0.0\nsamples = 18\nvalue = [18, 0]"] ;
15 -> 23 ;
24 [label="entropy = 0.0\nsamples = 2\nvalue = [0, 2]"] ;
14 -> 24 ;
25 [label="Property <= 2.5\nentropy = 0.9852\nsamples = 56\nvalue = [24, 32]"] ;
13 -> 25 ;
26 [label="Credit amount <= 0.0511\nentropy = 0.992\nsamples = 38\nvalue = [21, 17]"] ;
25 -> 26 ;
27 [label="Credit amount <= 0.0453\nentropy = 0.9457\nsamples = 33\nvalue = [21, 12]"] ;
26 -> 27 ;
28 [label="Installment rate in percentage of disposable income <= 2.5\nentropy = 0.9911\nsamples = 27\nvalue = [15, 12]"] ;
27 -> 28 ;
29 [label="entropy = 0.0\nsamples = 5\nvalue = [5, 0]"] ;
28 -> 29 ;
30 [label="Credit amount <= 0.0227\nentropy = 0.994\nsamples = 22\nvalue = [10, 12]"] ;
28 -> 30 ;
31 [label="entropy = 0.0\nsamples = 3\nvalue = [3, 0]"] ;
30 -> 31 ;
32 [label="Purpose <= 1.0\nentropy = 0.9495\nsamples = 19\nvalue = [7, 12]"] ;
30 -> 32 ;
33 [label="entropy = 0.0\nsamples = 5\nvalue = [0, 5]"] ;
32 -> 33 ;
34 [label="Credit amount <= 0.0303\nentropy = 1.0\nsamples = 14\nvalue = [7, 7]"] ;
32 -> 34 ;
35 [label="Purpose <= 7.0\nentropy = 0.8113\nsamples = 8\nvalue = [2, 6]"] ;
34 -> 35 ;
36 [label="Credit amount <= 0.025\nentropy = 0.5917\nsamples = 7\nvalue = [1, 6]"] ;
35 -> 36 ;
37 [label="Age in years <= 0.1964\nentropy = 1.0\nsamples = 2\nvalue = [1, 1]"] ;
36 -> 37 ;
38 [label="entropy = 0.0\nsamples = 1\nvalue = [0, 1]"] ;
37 -> 38 ;
39 [label="entropy = 0.0\nsamples = 1\nvalue = [1, 0]"] ;
37 -> 39 ;
40 [label="entropy = 0.0\nsamples = 5\nvalue = [0, 5]"] ;
36 -> 40 ;
41 [label="entropy = 0.0\nsamples = 1\nvalue = [1, 0]"] ;
35 -> 41 ;
42 [label="Present employment since <= 3.5\nentropy = 0.65\nsamples = 6\nvalue = [5, 1]"] ;
34 -> 42 ;
43 [label="entropy = 0.0\nsamples = 4\nvalue = [4, 0]"] ;
42 -> 43 ;
44 [label="Purpose <= 8.5\nentropy = 1.0\nsamples = 2\nvalue = [1, 1]"] ;
42 -> 44 ;
45 [label="entropy = 0.0\nsamples = 1\nvalue = [0, 1]"] ;
44 -> 45 ;
46 [label="entropy = 0.0\nsamples = 1\nvalue = [1, 0]"] ;
44 -> 46 ;
47 [label="entropy = 0.0\nsamples = 6\nvalue = [6, 0]"] ;
27 -> 47 ;
48 [label="entropy = 0.0\nsamples = 5\nvalue = [0, 5]"] ;
26 -> 48 ;
49 [label="Age in years <= 0.6964\nentropy = 0.65\nsamples = 18\nvalue = [3, 15]"] ;
25 -> 49 ;
50 [label="Personal status and sex <= 1.5\nentropy = 0.3373\nsamples = 16\nvalue = [1, 15]"] ;
49 -> 50 ;
51 [label="entropy = 0.0\nsamples = 1\nvalue = [1, 0]"] ;
50 -> 51 ;
52 [label="entropy = 0.0\nsamples = 15\nvalue = [0, 15]"] ;
50 -> 52 ;
53 [label="entropy = 0.0\nsamples = 2\nvalue = [2, 0]"] ;
49 -> 53 ;
54 [label="Credit amount <= 0.3985\nentropy = 0.7859\nsamples = 162\nvalue = [124, 38]"] ;
12 -> 54 ;
55 [label="Other installment plans <= 2.5\nentropy = 0.7346\nsamples = 155\nvalue = [123, 32]"] ;
54 -> 55 ;
56 [label="Age in years <= 0.1339\nentropy = 0.9306\nsamples = 26\nvalue = [17, 9]"] ;
55 -> 56 ;
57 [label="Property <= 2.5\nentropy = 0.65\nsamples = 6\nvalue = [1, 5]"] ;
56 -> 57 ;
58 [label="entropy = 0.0\nsamples = 3\nvalue = [0, 3]"] ;
57 -> 58 ;
59 [label="Status of existing checking account <= 1.5\nentropy = 0.9183\nsamples = 3\nvalue = [1, 2]"] ;
57 -> 59 ;
60 [label="Credit amount <= 0.0792\nentropy = 1.0\nsamples = 2\nvalue = [1, 1]"] ;
59 -> 60 ;
61 [label="entropy = 0.0\nsamples = 1\nvalue = [1, 0]"] ;
60 -> 61 ;
62 [label="entropy = 0.0\nsamples = 1\nvalue = [0, 1]"] ;
60 -> 62 ;
63 [label="entropy = 0.0\nsamples = 1\nvalue = [0, 1]"] ;
59 -> 63 ;
64 [label="Age in years <= 0.4018\nentropy = 0.7219\nsamples = 20\nvalue = [16, 4]"] ;
56 -> 64 ;
65 [label="Purpose <= 0.5\nentropy = 0.3712\nsamples = 14\nvalue = [13, 1]"] ;
64 -> 65 ;
66 [label="Credit amount <= 0.1075\nentropy = 1.0\nsamples = 2\nvalue = [1, 1]"] ;
65 -> 66 ;
67 [label="entropy = 0.0\nsamples = 1\nvalue = [1, 0]"] ;
66 -> 67 ;
68 [label="entropy = 0.0\nsamples = 1\nvalue = [0, 1]"] ;
66 -> 68 ;
69 [label="entropy = 0.0\nsamples = 12\nvalue = [12, 0]"] ;
65 -> 69 ;
70 [label="Savings account/bonds <= 1.5\nentropy = 1.0\nsamples = 6\nvalue = [3, 3]"] ;
64 -> 70 ;
71 [label="Age in years <= 0.4732\nentropy = 0.8113\nsamples = 4\nvalue = [3, 1]"] ;
70 -> 71 ;
72 [label="entropy = 0.0\nsamples = 1\nvalue = [0, 1]"] ;
71 -> 72 ;
73 [label="entropy = 0.0\nsamples = 3\nvalue = [3, 0]"] ;
71 -> 73 ;
74 [label="entropy = 0.0\nsamples = 2\nvalue = [0, 2]"] ;
70 -> 74 ;
75 [label="Property <= 3.5\nentropy = 0.6763\nsamples = 129\nvalue = [106, 23]"] ;
55 -> 75 ;
76 [label="Age in years <= 0.4554\nentropy = 0.6162\nsamples = 118\nvalue = [100, 18]"] ;
75 -> 76 ;
77 [label="Credit amount <= 0.0613\nentropy = 0.6647\nsamples = 104\nvalue = [86, 18]"] ;
76 -> 77 ;
78 [label="entropy = 0.0\nsamples = 8\nvalue = [8, 0]"] ;
77 -> 78 ;
79 [label="Credit amount <= 0.0626\nentropy = 0.6962\nsamples = 96\nvalue = [78, 18]"] ;
77 -> 79 ;
80 [label="entropy = 0.0\nsamples = 2\nvalue = [0, 2]"] ;
79 -> 80 ;
81 [label="Present employment since <= 3.5\nentropy = 0.6582\nsamples = 94\nvalue = [78, 16]"] ;
79 -> 81 ;
82 [label="Purpose <= 4.0\nentropy = 0.7516\nsamples = 65\nvalue = [51, 14]"] ;
81 -> 82 ;
83 [label="Duration in month <= 0.1838\nentropy = 0.7905\nsamples = 59\nvalue = [45, 14]"] ;
82 -> 83 ;
84 [label="Personal status and sex <= 3.5\nentropy = 0.6962\nsamples = 48\nvalue = [39, 9]"] ;
83 -> 84 ;
85 [label="Credit amount <= 0.1281\nentropy = 0.6236\nsamples = 45\nvalue = [38, 7]"] ;
84 -> 85 ;
86 [label="Installment rate in percentage of disposable income <= 3.5\nentropy = 0.3621\nsamples = 29\nvalue = [27, 2]"] ;
85 -> 86 ;
87 [label="entropy = 0.0\nsamples = 14\nvalue = [14, 0]"] ;
86 -> 87 ;
88 [label="Age in years <= 0.3036\nentropy = 0.5665\nsamples = 15\nvalue = [13, 2]"] ;
86 -> 88 ;
89 [label="Age in years <= 0.0625\nentropy = 0.3712\nsamples = 14\nvalue = [13, 1]"] ;
88 -> 89 ;
90 [label="Duration in month <= 0.0882\nentropy = 0.9183\nsamples = 3\nvalue = [2, 1]"] ;
89 -> 90 ;
91 [label="entropy = 0.0\nsamples = 1\nvalue = [0, 1]"] ;
90 -> 91 ;
92 [label="entropy = 0.0\nsamples = 2\nvalue = [2, 0]"] ;
90 -> 92 ;
93 [label="entropy = 0.0\nsamples = 11\nvalue = [11, 0]"] ;
89 -> 93 ;
94 [label="entropy = 0.0\nsamples = 1\nvalue = [0, 1]"] ;
88 -> 94 ;
95 [label="Credit amount <= 0.1315\nentropy = 0.896\nsamples = 16\nvalue = [11, 5]"] ;
85 -> 95 ;
96 [label="entropy = 0.0\nsamples = 2\nvalue = [0, 2]"] ;
95 -> 96 ;
97 [label="Personal status and sex <= 2.5\nentropy = 0.7496\nsamples = 14\nvalue = [11, 3]"] ;
95 -> 97 ;
98 [label="Status of existing checking account <= 1.5\nentropy = 0.9852\nsamples = 7\nvalue = [4, 3]"] ;
97 -> 98 ;
99 [label="entropy = 0.0\nsamples = 3\nvalue = [0, 3]"] ;
98 -> 99 ;
100 [label="entropy = 0.0\nsamples = 4\nvalue = [4, 0]"] ;
98 -> 100 ;
101 [label="entropy = 0.0\nsamples = 7\nvalue = [7, 0]"] ;
97 -> 101 ;
102 [label="Duration in month <= 0.0735\nentropy = 0.9183\nsamples = 3\nvalue = [1, 2]"] ;
84 -> 102 ;
103 [label="entropy = 0.0\nsamples = 1\nvalue = [1, 0]"] ;
102 -> 103 ;
104 [label="entropy = 0.0\nsamples = 2\nvalue = [0, 2]"] ;
102 -> 104 ;
105 [label="Credit amount <= 0.126\nentropy = 0.994\nsamples = 11\nvalue = [6, 5]"] ;
83 -> 105 ;
106 [label="entropy = 0.0\nsamples = 5\nvalue = [0, 5]"] ;
105 -> 106 ;
107 [label="entropy = 0.0\nsamples = 6\nvalue = [6, 0]"] ;
105 -> 107 ;
108 [label="entropy = 0.0\nsamples = 6\nvalue = [6, 0]"] ;
82 -> 108 ;
109 [label="Present employment since <= 4.5\nentropy = 0.3621\nsamples = 29\nvalue = [27, 2]"] ;
81 -> 109 ;
110 [label="entropy = 0.0\nsamples = 18\nvalue = [18, 0]"] ;
109 -> 110 ;
111 [label="Duration in month <= 0.1324\nentropy = 0.684\nsamples = 11\nvalue = [9, 2]"] ;
109 -> 111 ;
112 [label="Purpose <= 1.0\nentropy = 1.0\nsamples = 4\nvalue = [2, 2]"] ;
111 -> 112 ;
113 [label="entropy = 0.0\nsamples = 1\nvalue = [0, 1]"] ;
112 -> 113 ;
114 [label="Credit amount <= 0.0738\nentropy = 0.9183\nsamples = 3\nvalue = [2, 1]"] ;
112 -> 114 ;
115 [label="entropy = 0.0\nsamples = 1\nvalue = [0, 1]"] ;
114 -> 115 ;
116 [label="entropy = 0.0\nsamples = 2\nvalue = [2, 0]"] ;
114 -> 116 ;
117 [label="entropy = 0.0\nsamples = 7\nvalue = [7, 0]"] ;
111 -> 117 ;
118 [label="entropy = 0.0\nsamples = 14\nvalue = [14, 0]"] ;
76 -> 118 ;
119 [label="Credit history <= 3.5\nentropy = 0.994\nsamples = 11\nvalue = [6, 5]"] ;
75 -> 119 ;
120 [label="Present employment since <= 1.5\nentropy = 0.8631\nsamples = 7\nvalue = [2, 5]"] ;
119 -> 120 ;
121 [label="Status of existing checking account <= 1.5\nentropy = 0.9183\nsamples = 3\nvalue = [2, 1]"] ;
120 -> 121 ;
122 [label="entropy = 0.0\nsamples = 2\nvalue = [2, 0]"] ;
121 -> 122 ;
123 [label="entropy = 0.0\nsamples = 1\nvalue = [0, 1]"] ;
121 -> 123 ;
124 [label="entropy = 0.0\nsamples = 4\nvalue = [0, 4]"] ;
120 -> 124 ;
125 [label="entropy = 0.0\nsamples = 4\nvalue = [4, 0]"] ;
119 -> 125 ;
126 [label="Purpose <= 4.0\nentropy = 0.5917\nsamples = 7\nvalue = [1, 6]"] ;
54 -> 126 ;
127 [label="entropy = 0.0\nsamples = 6\nvalue = [0, 6]"] ;
126 -> 127 ;
128 [label="entropy = 0.0\nsamples = 1\nvalue = [1, 0]"] ;
126 -> 128 ;
129 [label="Savings account/bonds <= 3.5\nentropy = 0.9907\nsamples = 212\nvalue = [94, 118]"] ;
1 -> 129 ;
130 [label="Duration in month <= 0.6397\nentropy = 0.9591\nsamples = 173\nvalue = [66, 107]"] ;
129 -> 130 ;
131 [label="Age in years <= 0.7679\nentropy = 0.9856\nsamples = 142\nvalue = [61, 81]"] ;
130 -> 131 ;
132 [label="Credit amount <= 0.1079\nentropy = 0.9781\nsamples = 138\nvalue = [57, 81]"] ;
131 -> 132 ;
133 [label="Property <= 2.5\nentropy = 0.7973\nsamples = 29\nvalue = [7, 22]"] ;
132 -> 133 ;
134 [label="Credit amount <= 0.0878\nentropy = 0.9852\nsamples = 14\nvalue = [6, 8]"] ;
133 -> 134 ;
135 [label="Purpose <= 1.0\nentropy = 0.9183\nsamples = 9\nvalue = [6, 3]"] ;
134 -> 135 ;
136 [label="Credit amount <= 0.0525\nentropy = 0.8113\nsamples = 4\nvalue = [1, 3]"] ;
135 -> 136 ;
137 [label="entropy = 0.0\nsamples = 1\nvalue = [1, 0]"] ;
136 -> 137 ;
138 [label="entropy = 0.0\nsamples = 3\nvalue = [0, 3]"] ;
136 -> 138 ;
139 [label="entropy = 0.0\nsamples = 5\nvalue = [5, 0]"] ;
135 -> 139 ;
140 [label="entropy = 0.0\nsamples = 5\nvalue = [0, 5]"] ;
134 -> 140 ;
141 [label="Age in years <= 0.0446\nentropy = 0.3534\nsamples = 15\nvalue = [1, 14]"] ;
133 -> 141 ;
142 [label="entropy = 0.0\nsamples = 1\nvalue = [1, 0]"] ;
141 -> 142 ;
143 [label="entropy = 0.0\nsamples = 14\nvalue = [0, 14]"] ;
141 -> 143 ;
144 [label="Credit amount <= 0.4273\nentropy = 0.9951\nsamples = 109\nvalue = [50, 59]"] ;
132 -> 144 ;
145 [label="Credit amount <= 0.2796\nentropy = 0.9996\nsamples = 86\nvalue = [44, 42]"] ;
144 -> 145 ;
146 [label="Credit amount <= 0.2507\nentropy = 0.9816\nsamples = 69\nvalue = [29, 40]"] ;
145 -> 146 ;
147 [label="Age in years <= 0.0446\nentropy = 0.9955\nsamples = 63\nvalue = [29, 34]"] ;
146 -> 147 ;
148 [label="entropy = 0.0\nsamples = 3\nvalue = [0, 3]"] ;
147 -> 148 ;
149 [label="Age in years <= 0.0625\nentropy = 0.9992\nsamples = 60\nvalue = [29, 31]"] ;
147 -> 149 ;
150 [label="Purpose <= 2.5\nentropy = 0.65\nsamples = 6\nvalue = [5, 1]"] ;
149 -> 150 ;
151 [label="entropy = 0.0\nsamples = 5\nvalue = [5, 0]"] ;
150 -> 151 ;
152 [label="entropy = 0.0\nsamples = 1\nvalue = [0, 1]"] ;
150 -> 152 ;
153 [label="Age in years <= 0.1339\nentropy = 0.9911\nsamples = 54\nvalue = [24, 30]"] ;
149 -> 153 ;
154 [label="Present employment since <= 1.5\nentropy = 0.5033\nsamples = 9\nvalue = [1, 8]"] ;
153 -> 154 ;
155 [label="entropy = 0.0\nsamples = 1\nvalue = [1, 0]"] ;
154 -> 155 ;
156 [label="entropy = 0.0\nsamples = 8\nvalue = [0, 8]"] ;
154 -> 156 ;
157 [label="Credit amount <= 0.2347\nentropy = 0.9996\nsamples = 45\nvalue = [23, 22]"] ;
153 -> 157 ;
158 [label="Credit history <= 1.5\nentropy = 0.9984\nsamples = 42\nvalue = [20, 22]"] ;
157 -> 158 ;
159 [label="Installment rate in percentage of disposable income <= 2.5\nentropy = 0.5917\nsamples = 7\nvalue = [1, 6]"] ;
158 -> 159 ;
160 [label="Personal status and sex <= 2.5\nentropy = 1.0\nsamples = 2\nvalue = [1, 1]"] ;
159 -> 160 ;
161 [label="entropy = 0.0\nsamples = 1\nvalue = [1, 0]"] ;
160 -> 161 ;
162 [label="entropy = 0.0\nsamples = 1\nvalue = [0, 1]"] ;
160 -> 162 ;
163 [label="entropy = 0.0\nsamples = 5\nvalue = [0, 5]"] ;
159 -> 163 ;
164 [label="Personal status and sex <= 2.5\nentropy = 0.9947\nsamples = 35\nvalue = [19, 16]"] ;
158 -> 164 ;
165 [label="Credit amount <= 0.1229\nentropy = 0.8905\nsamples = 13\nvalue = [4, 9]"] ;
164 -> 165 ;
166 [label="entropy = 0.0\nsamples = 3\nvalue = [0, 3]"] ;
165 -> 166 ;
167 [label="Credit amount <= 0.2046\nentropy = 0.971\nsamples = 10\nvalue = [4, 6]"] ;
165 -> 167 ;
168 [label="Credit amount <= 0.1729\nentropy = 0.9852\nsamples = 7\nvalue = [4, 3]"] ;
167 -> 168 ;
169 [label="Credit amount <= 0.1293\nentropy = 0.8113\nsamples = 4\nvalue = [1, 3]"] ;
168 -> 169 ;
170 [label="entropy = 0.0\nsamples = 1\nvalue = [1, 0]"] ;
169 -> 170 ;
171 [label="entropy = 0.0\nsamples = 3\nvalue = [0, 3]"] ;
169 -> 171 ;
172 [label="entropy = 0.0\nsamples = 3\nvalue = [3, 0]"] ;
168 -> 172 ;
173 [label="entropy = 0.0\nsamples = 3\nvalue = [0, 3]"] ;
167 -> 173 ;
174 [label="Credit amount <= 0.1164\nentropy = 0.9024\nsamples = 22\nvalue = [15, 7]"] ;
164 -> 174 ;
175 [label="entropy = 0.0\nsamples = 3\nvalue = [3, 0]"] ;
174 -> 175 ;
176 [label="Savings account/bonds <= 1.5\nentropy = 0.9495\nsamples = 19\nvalue = [12, 7]"] ;
174 -> 176 ;
177 [label="Status of existing checking account <= 1.5\nentropy = 0.9887\nsamples = 16\nvalue = [9, 7]"] ;
176 -> 177 ;
178 [label="Age in years <= 0.3393\nentropy = 0.8905\nsamples = 13\nvalue = [9, 4]"] ;
177 -> 178 ;
179 [label="entropy = 0.0\nsamples = 6\nvalue = [6, 0]"] ;
178 -> 179 ;
180 [label="Credit amount <= 0.1677\nentropy = 0.9852\nsamples = 7\nvalue = [3, 4]"] ;
178 -> 180 ;
181 [label="Other installment plans <= 1.5\nentropy = 0.8113\nsamples = 4\nvalue = [3, 1]"] ;
180 -> 181 ;
182 [label="Credit amount <= 0.1502\nentropy = 1.0\nsamples = 2\nvalue = [1, 1]"] ;
181 -> 182 ;
183 [label="entropy = 0.0\nsamples = 1\nvalue = [0, 1]"] ;
182 -> 183 ;
184 [label="entropy = 0.0\nsamples = 1\nvalue = [1, 0]"] ;
182 -> 184 ;
185 [label="entropy = 0.0\nsamples = 2\nvalue = [2, 0]"] ;
181 -> 185 ;
186 [label="entropy = 0.0\nsamples = 3\nvalue = [0, 3]"] ;
180 -> 186 ;
187 [label="entropy = 0.0\nsamples = 3\nvalue = [0, 3]"] ;
177 -> 187 ;
188 [label="entropy = 0.0\nsamples = 3\nvalue = [3, 0]"] ;
176 -> 188 ;
189 [label="entropy = 0.0\nsamples = 3\nvalue = [3, 0]"] ;
157 -> 189 ;
190 [label="entropy = 0.0\nsamples = 6\nvalue = [0, 6]"] ;
146 -> 190 ;
191 [label="Installment rate in percentage of disposable income <= 3.5\nentropy = 0.5226\nsamples = 17\nvalue = [15, 2]"] ;
145 -> 191 ;
192 [label="entropy = 0.0\nsamples = 13\nvalue = [13, 0]"] ;
191 -> 192 ;
193 [label="Other installment plans <= 2.5\nentropy = 1.0\nsamples = 4\nvalue = [2, 2]"] ;
191 -> 193 ;
194 [label="entropy = 0.0\nsamples = 2\nvalue = [0, 2]"] ;
193 -> 194 ;
195 [label="entropy = 0.0\nsamples = 2\nvalue = [2, 0]"] ;
193 -> 195 ;
196 [label="Age in years <= 0.1964\nentropy = 0.8281\nsamples = 23\nvalue = [6, 17]"] ;
144 -> 196 ;
197 [label="entropy = 0.0\nsamples = 9\nvalue = [0, 9]"] ;
196 -> 197 ;
198 [label="Duration in month <= 0.4926\nentropy = 0.9852\nsamples = 14\nvalue = [6, 8]"] ;
196 -> 198 ;
199 [label="Age in years <= 0.4375\nentropy = 0.8454\nsamples = 11\nvalue = [3, 8]"] ;
198 -> 199 ;
200 [label="Duration in month <= 0.3603\nentropy = 0.9852\nsamples = 7\nvalue = [3, 4]"] ;
199 -> 200 ;
201 [label="entropy = 0.0\nsamples = 2\nvalue = [0, 2]"] ;
200 -> 201 ;
202 [label="Purpose <= 7.0\nentropy = 0.971\nsamples = 5\nvalue = [3, 2]"] ;
200 -> 202 ;
203 [label="Credit history <= 3.5\nentropy = 0.9183\nsamples = 3\nvalue = [1, 2]"] ;
202 -> 203 ;
204 [label="entropy = 0.0\nsamples = 2\nvalue = [0, 2]"] ;
203 -> 204 ;
205 [label="entropy = 0.0\nsamples = 1\nvalue = [1, 0]"] ;
203 -> 205 ;
206 [label="entropy = 0.0\nsamples = 2\nvalue = [2, 0]"] ;
202 -> 206 ;
207 [label="entropy = 0.0\nsamples = 4\nvalue = [0, 4]"] ;
199 -> 207 ;
208 [label="entropy = 0.0\nsamples = 3\nvalue = [3, 0]"] ;
198 -> 208 ;
209 [label="entropy = 0.0\nsamples = 4\nvalue = [4, 0]"] ;
131 -> 209 ;
210 [label="Present employment since <= 1.5\nentropy = 0.6374\nsamples = 31\nvalue = [5, 26]"] ;
130 -> 210 ;
211 [label="entropy = 0.0\nsamples = 1\nvalue = [1, 0]"] ;
210 -> 211 ;
212 [label="Savings account/bonds <= 2.5\nentropy = 0.5665\nsamples = 30\nvalue = [4, 26]"] ;
210 -> 212 ;
213 [label="Installment rate in percentage of disposable income <= 3.5\nentropy = 0.4798\nsamples = 29\nvalue = [3, 26]"] ;
212 -> 213 ;
214 [label="entropy = 0.0\nsamples = 16\nvalue = [0, 16]"] ;
213 -> 214 ;
215 [label="Present employment since <= 4.5\nentropy = 0.7793\nsamples = 13\nvalue = [3, 10]"] ;
213 -> 215 ;
216 [label="Purpose <= 0.5\nentropy = 0.9544\nsamples = 8\nvalue = [3, 5]"] ;
215 -> 216 ;
217 [label="entropy = 0.0\nsamples = 2\nvalue = [0, 2]"] ;
216 -> 217 ;
218 [label="Age in years <= 0.1429\nentropy = 1.0\nsamples = 6\nvalue = [3, 3]"] ;
216 -> 218 ;
219 [label="entropy = 0.0\nsamples = 1\nvalue = [1, 0]"] ;
218 -> 219 ;
220 [label="Purpose <= 4.5\nentropy = 0.971\nsamples = 5\nvalue = [2, 3]"] ;
218 -> 220 ;
221 [label="entropy = 0.0\nsamples = 2\nvalue = [0, 2]"] ;
220 -> 221 ;
222 [label="Credit history <= 0.5\nentropy = 0.9183\nsamples = 3\nvalue = [2, 1]"] ;
220 -> 222 ;
223 [label="entropy = 0.0\nsamples = 1\nvalue = [0, 1]"] ;
222 -> 223 ;
224 [label="entropy = 0.0\nsamples = 2\nvalue = [2, 0]"] ;
222 -> 224 ;
225 [label="entropy = 0.0\nsamples = 5\nvalue = [0, 5]"] ;
215 -> 225 ;
226 [label="entropy = 0.0\nsamples = 1\nvalue = [1, 0]"] ;
212 -> 226 ;
227 [label="Status of existing checking account <= 1.5\nentropy = 0.8582\nsamples = 39\nvalue = [28, 11]"] ;
129 -> 227 ;
228 [label="Age in years <= 0.5179\nentropy = 0.9887\nsamples = 16\nvalue = [7, 9]"] ;
227 -> 228 ;
229 [label="Credit amount <= 0.118\nentropy = 0.8905\nsamples = 13\nvalue = [4, 9]"] ;
228 -> 229 ;
230 [label="entropy = 0.0\nsamples = 6\nvalue = [0, 6]"] ;
229 -> 230 ;
231 [label="Property <= 2.5\nentropy = 0.9852\nsamples = 7\nvalue = [4, 3]"] ;
229 -> 231 ;
232 [label="entropy = 0.0\nsamples = 3\nvalue = [3, 0]"] ;
231 -> 232 ;
233 [label="Purpose <= 6.0\nentropy = 0.8113\nsamples = 4\nvalue = [1, 3]"] ;
231 -> 233 ;
234 [label="entropy = 0.0\nsamples = 3\nvalue = [0, 3]"] ;
233 -> 234 ;
235 [label="entropy = 0.0\nsamples = 1\nvalue = [1, 0]"] ;
233 -> 235 ;
236 [label="entropy = 0.0\nsamples = 3\nvalue = [3, 0]"] ;
228 -> 236 ;
237 [label="Credit amount <= 0.5397\nentropy = 0.4262\nsamples = 23\nvalue = [21, 2]"] ;
227 -> 237 ;
238 [label="entropy = 0.0\nsamples = 19\nvalue = [19, 0]"] ;
237 -> 238 ;
239 [label="Credit history <= 1.5\nentropy = 1.0\nsamples = 4\nvalue = [2, 2]"] ;
237 -> 239 ;
240 [label="entropy = 0.0\nsamples = 2\nvalue = [2, 0]"] ;
239 -> 240 ;
241 [label="entropy = 0.0\nsamples = 2\nvalue = [0, 2]"] ;
239 -> 241 ;
242 [label="Other installment plans <= 2.5\nentropy = 0.5808\nsamples = 411\nvalue = [354, 57]"] ;
0 -> 242 [labeldistance=2.5, labelangle=-45, headlabel="False"] ;
243 [label="Age in years <= 0.4554\nentropy = 0.8657\nsamples = 73\nvalue = [52, 21]"] ;
242 -> 243 ;
244 [label="Age in years <= 0.3125\nentropy = 0.9403\nsamples = 56\nvalue = [36, 20]"] ;
243 -> 244 ;
245 [label="Credit amount <= 0.1072\nentropy = 0.8113\nsamples = 40\nvalue = [30, 10]"] ;
244 -> 245 ;
246 [label="Credit history <= 3.5\nentropy = 0.3712\nsamples = 14\nvalue = [13, 1]"] ;
245 -> 246 ;
247 [label="entropy = 0.0\nsamples = 12\nvalue = [12, 0]"] ;
246 -> 247 ;
248 [label="Personal status and sex <= 2.5\nentropy = 1.0\nsamples = 2\nvalue = [1, 1]"] ;
246 -> 248 ;
249 [label="entropy = 0.0\nsamples = 1\nvalue = [0, 1]"] ;
248 -> 249 ;
250 [label="entropy = 0.0\nsamples = 1\nvalue = [1, 0]"] ;
248 -> 250 ;
251 [label="Credit history <= 0.5\nentropy = 0.9306\nsamples = 26\nvalue = [17, 9]"] ;
245 -> 251 ;
252 [label="entropy = 0.0\nsamples = 2\nvalue = [0, 2]"] ;
251 -> 252 ;
253 [label="Savings account/bonds <= 3.5\nentropy = 0.8709\nsamples = 24\nvalue = [17, 7]"] ;
251 -> 253 ;
254 [label="Installment rate in percentage of disposable income <= 1.5\nentropy = 0.9341\nsamples = 20\nvalue = [13, 7]"] ;
253 -> 254 ;
255 [label="entropy = 0.0\nsamples = 4\nvalue = [4, 0]"] ;
254 -> 255 ;
256 [label="Duration in month <= 0.5588\nentropy = 0.9887\nsamples = 16\nvalue = [9, 7]"] ;
254 -> 256 ;
257 [label="Credit amount <= 0.1089\nentropy = 0.9403\nsamples = 14\nvalue = [9, 5]"] ;
256 -> 257 ;
258 [label="entropy = 0.0\nsamples = 1\nvalue = [0, 1]"] ;
257 -> 258 ;
259 [label="Duration in month <= 0.1838\nentropy = 0.8905\nsamples = 13\nvalue = [9, 4]"] ;
257 -> 259 ;
260 [label="entropy = 0.0\nsamples = 3\nvalue = [3, 0]"] ;
259 -> 260 ;
261 [label="Purpose <= 0.5\nentropy = 0.971\nsamples = 10\nvalue = [6, 4]"] ;
259 -> 261 ;
262 [label="entropy = 0.0\nsamples = 2\nvalue = [0, 2]"] ;
261 -> 262 ;
263 [label="Installment rate in percentage of disposable income <= 3.5\nentropy = 0.8113\nsamples = 8\nvalue = [6, 2]"] ;
261 -> 263 ;
264 [label="Other installment plans <= 1.5\nentropy = 1.0\nsamples = 4\nvalue = [2, 2]"] ;
263 -> 264 ;
265 [label="entropy = 0.0\nsamples = 2\nvalue = [0, 2]"] ;
264 -> 265 ;
266 [label="entropy = 0.0\nsamples = 2\nvalue = [2, 0]"] ;
264 -> 266 ;
267 [label="entropy = 0.0\nsamples = 4\nvalue = [4, 0]"] ;
263 -> 267 ;
268 [label="entropy = 0.0\nsamples = 2\nvalue = [0, 2]"] ;
256 -> 268 ;
269 [label="entropy = 0.0\nsamples = 4\nvalue = [4, 0]"] ;
253 -> 269 ;
270 [label="Purpose <= 4.5\nentropy = 0.9544\nsamples = 16\nvalue = [6, 10]"] ;
244 -> 270 ;
271 [label="Status of existing checking account <= 3.5\nentropy = 0.994\nsamples = 11\nvalue = [6, 5]"] ;
270 -> 271 ;
272 [label="entropy = 0.0\nsamples = 3\nvalue = [0, 3]"] ;
271 -> 272 ;
273 [label="Purpose <= 0.5\nentropy = 0.8113\nsamples = 8\nvalue = [6, 2]"] ;
271 -> 273 ;
274 [label="Duration in month <= 0.1176\nentropy = 0.9183\nsamples = 3\nvalue = [1, 2]"] ;
273 -> 274 ;
275 [label="entropy = 0.0\nsamples = 1\nvalue = [1, 0]"] ;
274 -> 275 ;
276 [label="entropy = 0.0\nsamples = 2\nvalue = [0, 2]"] ;
274 -> 276 ;
277 [label="entropy = 0.0\nsamples = 5\nvalue = [5, 0]"] ;
273 -> 277 ;
278 [label="entropy = 0.0\nsamples = 5\nvalue = [0, 5]"] ;
270 -> 278 ;
279 [label="Property <= 1.5\nentropy = 0.3228\nsamples = 17\nvalue = [16, 1]"] ;
243 -> 279 ;
280 [label="entropy = 0.0\nsamples = 1\nvalue = [0, 1]"] ;
279 -> 280 ;
281 [label="entropy = 0.0\nsamples = 16\nvalue = [16, 0]"] ;
279 -> 281 ;
282 [label="Age in years <= 0.2054\nentropy = 0.4893\nsamples = 338\nvalue = [302, 36]"] ;
242 -> 282 ;
283 [label="Credit amount <= 0.3432\nentropy = 0.6906\nsamples = 119\nvalue = [97, 22]"] ;
282 -> 283 ;
284 [label="Installment rate in percentage of disposable income <= 1.5\nentropy = 0.6211\nsamples = 110\nvalue = [93, 17]"] ;
283 -> 284 ;
285 [label="entropy = 0.0\nsamples = 13\nvalue = [13, 0]"] ;
284 -> 285 ;
286 [label="Age in years <= 0.0625\nentropy = 0.6696\nsamples = 97\nvalue = [80, 17]"] ;
284 -> 286 ;
287 [label="Savings account/bonds <= 1.5\nentropy = 0.9799\nsamples = 12\nvalue = [7, 5]"] ;
286 -> 287 ;
288 [label="Credit history <= 3.5\nentropy = 0.65\nsamples = 6\nvalue = [1, 5]"] ;
287 -> 288 ;
289 [label="entropy = 0.0\nsamples = 5\nvalue = [0, 5]"] ;
288 -> 289 ;
290 [label="entropy = 0.0\nsamples = 1\nvalue = [1, 0]"] ;
288 -> 290 ;
291 [label="entropy = 0.0\nsamples = 6\nvalue = [6, 0]"] ;
287 -> 291 ;
292 [label="Present employment since <= 3.5\nentropy = 0.5873\nsamples = 85\nvalue = [73, 12]"] ;
286 -> 292 ;
293 [label="Personal status and sex <= 2.5\nentropy = 0.6744\nsamples = 62\nvalue = [51, 11]"] ;
292 -> 293 ;
294 [label="Savings account/bonds <= 3.5\nentropy = 0.8256\nsamples = 27\nvalue = [20, 7]"] ;
293 -> 294 ;
295 [label="Savings account/bonds <= 2.5\nentropy = 0.8865\nsamples = 23\nvalue = [16, 7]"] ;
294 -> 295 ;
296 [label="Duration in month <= 0.4485\nentropy = 0.7919\nsamples = 21\nvalue = [16, 5]"] ;
295 -> 296 ;
297 [label="Property <= 1.5\nentropy = 0.7219\nsamples = 20\nvalue = [16, 4]"] ;
296 -> 297 ;
298 [label="Duration in month <= 0.1397\nentropy = 0.971\nsamples = 10\nvalue = [6, 4]"] ;
297 -> 298 ;
299 [label="Status of existing checking account <= 3.5\nentropy = 0.5917\nsamples = 7\nvalue = [6, 1]"] ;
298 -> 299 ;
300 [label="entropy = 0.0\nsamples = 1\nvalue = [0, 1]"] ;
299 -> 300 ;
301 [label="entropy = 0.0\nsamples = 6\nvalue = [6, 0]"] ;
299 -> 301 ;
302 [label="entropy = 0.0\nsamples = 3\nvalue = [0, 3]"] ;
298 -> 302 ;
303 [label="entropy = 0.0\nsamples = 10\nvalue = [10, 0]"] ;
297 -> 303 ;
304 [label="entropy = 0.0\nsamples = 1\nvalue = [0, 1]"] ;
296 -> 304 ;
305 [label="entropy = 0.0\nsamples = 2\nvalue = [0, 2]"] ;
295 -> 305 ;
306 [label="entropy = 0.0\nsamples = 4\nvalue = [4, 0]"] ;
294 -> 306 ;
307 [label="Installment rate in percentage of disposable income <= 3.5\nentropy = 0.5127\nsamples = 35\nvalue = [31, 4]"] ;
293 -> 307 ;
308 [label="entropy = 0.0\nsamples = 16\nvalue = [16, 0]"] ;
307 -> 308 ;
309 [label="Duration in month <= 0.1029\nentropy = 0.7425\nsamples = 19\nvalue = [15, 4]"] ;
307 -> 309 ;
310 [label="entropy = 0.0\nsamples = 1\nvalue = [0, 1]"] ;
309 -> 310 ;
311 [label="Credit amount <= 0.0982\nentropy = 0.65\nsamples = 18\nvalue = [15, 3]"] ;
309 -> 311 ;
312 [label="entropy = 0.0\nsamples = 9\nvalue = [9, 0]"] ;
311 -> 312 ;
313 [label="Savings account/bonds <= 2.0\nentropy = 0.9183\nsamples = 9\nvalue = [6, 3]"] ;
311 -> 313 ;
314 [label="Credit history <= 1.0\nentropy = 1.0\nsamples = 6\nvalue = [3, 3]"] ;
313 -> 314 ;
315 [label="entropy = 0.0\nsamples = 1\nvalue = [1, 0]"] ;
314 -> 315 ;
316 [label="Age in years <= 0.1071\nentropy = 0.971\nsamples = 5\nvalue = [2, 3]"] ;
314 -> 316 ;
317 [label="entropy = 0.0\nsamples = 1\nvalue = [1, 0]"] ;
316 -> 317 ;
318 [label="Purpose <= 2.5\nentropy = 0.8113\nsamples = 4\nvalue = [1, 3]"] ;
316 -> 318 ;
319 [label="entropy = 0.0\nsamples = 1\nvalue = [1, 0]"] ;
318 -> 319 ;
320 [label="entropy = 0.0\nsamples = 3\nvalue = [0, 3]"] ;
318 -> 320 ;
321 [label="entropy = 0.0\nsamples = 3\nvalue = [3, 0]"] ;
313 -> 321 ;
322 [label="Credit amount <= 0.0385\nentropy = 0.258\nsamples = 23\nvalue = [22, 1]"] ;
292 -> 322 ;
323 [label="entropy = 0.0\nsamples = 1\nvalue = [0, 1]"] ;
322 -> 323 ;
324 [label="entropy = 0.0\nsamples = 22\nvalue = [22, 0]"] ;
322 -> 324 ;
325 [label="Present employment since <= 2.5\nentropy = 0.9911\nsamples = 9\nvalue = [4, 5]"] ;
283 -> 325 ;
326 [label="entropy = 0.0\nsamples = 4\nvalue = [0, 4]"] ;
325 -> 326 ;
327 [label="Property <= 3.5\nentropy = 0.7219\nsamples = 5\nvalue = [4, 1]"] ;
325 -> 327 ;
328 [label="entropy = 0.0\nsamples = 4\nvalue = [4, 0]"] ;
327 -> 328 ;
329 [label="entropy = 0.0\nsamples = 1\nvalue = [0, 1]"] ;
327 -> 329 ;
330 [label="Status of existing checking account <= 3.5\nentropy = 0.3428\nsamples = 219\nvalue = [205, 14]"] ;
282 -> 330 ;
331 [label="Credit amount <= 0.115\nentropy = 0.7219\nsamples = 25\nvalue = [20, 5]"] ;
330 -> 331 ;
332 [label="Age in years <= 0.2857\nentropy = 0.8524\nsamples = 18\nvalue = [13, 5]"] ;
331 -> 332 ;
333 [label="entropy = 0.0\nsamples = 2\nvalue = [0, 2]"] ;
332 -> 333 ;
334 [label="Duration in month <= 0.3382\nentropy = 0.6962\nsamples = 16\nvalue = [13, 3]"] ;
332 -> 334 ;
335 [label="Property <= 3.5\nentropy = 0.5665\nsamples = 15\nvalue = [13, 2]"] ;
334 -> 335 ;
336 [label="entropy = 0.0\nsamples = 11\nvalue = [11, 0]"] ;
335 -> 336 ;
337 [label="Installment rate in percentage of disposable income <= 3.5\nentropy = 1.0\nsamples = 4\nvalue = [2, 2]"] ;
335 -> 337 ;
338 [label="entropy = 0.0\nsamples = 2\nvalue = [0, 2]"] ;
337 -> 338 ;
339 [label="entropy = 0.0\nsamples = 2\nvalue = [2, 0]"] ;
337 -> 339 ;
340 [label="entropy = 0.0\nsamples = 1\nvalue = [0, 1]"] ;
334 -> 340 ;
341 [label="entropy = 0.0\nsamples = 7\nvalue = [7, 0]"] ;
331 -> 341 ;
342 [label="Credit history <= 3.5\nentropy = 0.2709\nsamples = 194\nvalue = [185, 9]"] ;
330 -> 342 ;
343 [label="Property <= 1.5\nentropy = 0.4138\nsamples = 108\nvalue = [99, 9]"] ;
342 -> 343 ;
344 [label="entropy = 0.0\nsamples = 31\nvalue = [31, 0]"] ;
343 -> 344 ;
345 [label="Age in years <= 0.8393\nentropy = 0.5203\nsamples = 77\nvalue = [68, 9]"] ;
343 -> 345 ;
346 [label="Duration in month <= 0.3162\nentropy = 0.4855\nsamples = 76\nvalue = [68, 8]"] ;
345 -> 346 ;
347 [label="Credit amount <= 0.1847\nentropy = 0.5606\nsamples = 61\nvalue = [53, 8]"] ;
346 -> 347 ;
348 [label="Age in years <= 0.4107\nentropy = 0.3478\nsamples = 46\nvalue = [43, 3]"] ;
347 -> 348 ;
349 [label="entropy = 0.0\nsamples = 27\nvalue = [27, 0]"] ;
348 -> 349 ;
350 [label="Installment rate in percentage of disposable income <= 3.5\nentropy = 0.6292\nsamples = 19\nvalue = [16, 3]"] ;
348 -> 350 ;
351 [label="entropy = 0.0\nsamples = 9\nvalue = [9, 0]"] ;
350 -> 351 ;
352 [label="Savings account/bonds <= 4.5\nentropy = 0.8813\nsamples = 10\nvalue = [7, 3]"] ;
350 -> 352 ;
353 [label="Purpose <= 5.5\nentropy = 1.0\nsamples = 6\nvalue = [3, 3]"] ;
352 -> 353 ;
354 [label="Age in years <= 0.6875\nentropy = 0.8113\nsamples = 4\nvalue = [1, 3]"] ;
353 -> 354 ;
355 [label="entropy = 0.0\nsamples = 3\nvalue = [0, 3]"] ;
354 -> 355 ;
356 [label="entropy = 0.0\nsamples = 1\nvalue = [1, 0]"] ;
354 -> 356 ;
357 [label="entropy = 0.0\nsamples = 2\nvalue = [2, 0]"] ;
353 -> 357 ;
358 [label="entropy = 0.0\nsamples = 4\nvalue = [4, 0]"] ;
352 -> 358 ;
359 [label="Purpose <= 1.5\nentropy = 0.9183\nsamples = 15\nvalue = [10, 5]"] ;
347 -> 359 ;
360 [label="entropy = 0.0\nsamples = 7\nvalue = [7, 0]"] ;
359 -> 360 ;
361 [label="Credit history <= 2.5\nentropy = 0.9544\nsamples = 8\nvalue = [3, 5]"] ;
359 -> 361 ;
362 [label="Installment rate in percentage of disposable income <= 2.5\nentropy = 0.65\nsamples = 6\nvalue = [1, 5]"] ;
361 -> 362 ;
363 [label="entropy = 0.0\nsamples = 4\nvalue = [0, 4]"] ;
362 -> 363 ;
364 [label="Purpose <= 4.5\nentropy = 1.0\nsamples = 2\nvalue = [1, 1]"] ;
362 -> 364 ;
365 [label="entropy = 0.0\nsamples = 1\nvalue = [1, 0]"] ;
364 -> 365 ;
366 [label="entropy = 0.0\nsamples = 1\nvalue = [0, 1]"] ;
364 -> 366 ;
367 [label="entropy = 0.0\nsamples = 2\nvalue = [2, 0]"] ;
361 -> 367 ;
368 [label="entropy = 0.0\nsamples = 15\nvalue = [15, 0]"] ;
346 -> 368 ;
369 [label="entropy = 0.0\nsamples = 1\nvalue = [0, 1]"] ;
345 -> 369 ;
370 [label="entropy = 0.0\nsamples = 86\nvalue = [86, 0]"] ;
342 -> 370 ;
}